{"version": "0.7.0", "architecture": "WaveNet", "config": {"layers": [{"input_size": 1, "condition_size": 1, "channels": 4, "bottleneck": 4, "dilations": [1, 2], "kernel_sizes": [3, 3], "activation": [{"type": "Tanh"}, {"type": "Tanh"}], "gating_mode": ["gated", "gated"], "secondary_activation": [{"type": "Sigmoid"}, {"type": "Sigmoid"}], "layer1x1": {"active": true, "groups": 1}, "head": {"out_channels": 1, "kernel_size": 1, "bias": false}}], "head": null, "head_scale": 0.5}, "weights": [0.0, 0.020485776475203544, 0.04058765642181475, 0.0599289374024608, 0.0781471703473695, 0.09490095172745795, 0.10987632134110066, 0.12279264582221436, 0.13340787761470702, 0.1415230908618861, 0.14698620920979213, 0.1496948556666821, 0.14959827111325963, 0.14669826551141799, 0.14104918398616595, 0.1327568884163492, 0.12197677361881384, 0.10891085530204968, 0.09380398436007807, 0.07693925844943823, 0.058632716834767826, 0.03922741791977982, 0.01908701044870304, -0.0014110811483004288, -0.02188272956141725, -0.04194430301716444, -0.06121985440818759, -0.07934816641501269, -0.09598952059655051, -0.11083206359888492, -0.12359765118174386, -0.1340470605475715, -0.14198447329591646, -0.14726114499408494, -0.14977819259754596, -0.1494884474847714, -0.14639733938126395, -0.14056279460833618, -0.13209415056342363, -0.12115010677420396, -0.10793575092307613, -0.09269871557329556, -0.0757245376184188, -0.05733130741740635, -0.0378637078887853, -0.017686555269231453, 0.00282203741942743, 0.023277746080469043, 0.04329723764597806, 0.06250535360900271, 0.08054214036720177, 0.09706959463171715, 0.11177799749458879, 0.12439171845642942, 0.1346743806488423, 0.14243329045705863, 0.14752304853316298, 0.14984827453074, 0.14936539450033548, 0.14608345745054435, 0.1400639657726476, 0.1314197227065826, 0.12031271844634513, 0.1069510944984933, 0.09158524318065035, 0.07450311535408466, 0.05602482432187396, 0.036496647013778555, 0.01628453487359057, -0.004232743947258964, -0.02467070257686531, -0.044646340576904545, -0.06378532124142267, -0.08172898654021038, -0.09814107824909125, -0.11271403931541422, -0.12517477737329133, -0.13528978240225, -0.14286950262610967, -0.14777189664921422, -0.14990509526418744, -0.14922912304983507, -0.14575664749702966, -0.13955274162421194, -0.13073366453101473, -0.11946468274202235, -0.10595697316794668, -0.09046366572168074, -0.07327509974926974, -0.05471338316867695, -0.03512635627624796, -0.01488107333709961, 0.005643075887774381, 0.026061475777419515, 0.04599149241768868, 0.06505964403149436, 0.0829085999011028, 0.09920387662503621, 0.11364010622398746, 0.12594675863356236, 0.1358932113462694, 0.14329307119937726, 0.1480076673197991, 0.14994864976939454, 0.14907964519295477, 0.14541693844258832, 0.13902916740509524, 0.13003603675116293, 0.11860607471028739, 0.1049534749087023, 0.08933408245320346, 0.07204059948030188, 0.05339710001709665, 0.0337529569435175, 0.013476294862615035, -0.007052908430103416, -0.0274499426021606, -0.04733257412573683, -0.06632820920481905, -0.08408087605702944, -0.10025789570453823, -0.1145561162656891, -0.12670759391882036, -0.1364846140789393, -0.14370395869209546, -0.14823033967979943, -0.14997893419189592, -0.14891697415811328, -0.14506436035062703, -0.1384932894503144, -0.1293269011053511, -0.1177369703358161, -0.1039406885278614, -0.08819659334052939, -0.07079972379738567, -0.052076091354919495, -0.032376570558013365, -0.012070323769539834, 0.00846211680757143, 0.028835980175227066, 0.048669467018652005, 0.06759090449653277, 0.08524571126446494, 0.10130304220952925, 0.11546198837590801, 0.1274572158970339, 0.137063938262588, 0.1441021287417431, 0.14843989402326502, 0.1499959458515955, 0.14874112434129272, 0.1446989444234304, 0.137945155183736, 0.12860632035032113, 0.11685744653218517, 0.10291870365450093, 0.08705129904861701, 0.06955258251493403, 0.050750474088127794, 0.030997318926508734, 0.01066328448281999, -0.009870576308740027, -0.030219465835739107, -0.05000205278473743, -0.06884761816124196, -0.08640300243838947, -0.10233922364714203, -0.11635764238721458, -0.12819555822852174, -0.13763113262846566, -0.14448754611126036, -0.1486363118051573, -0.14999968324300367, -0.1485521113047647, -0.14432072299939946, -0.13738481311387993, -0.12787435825567822, -0.11596758113506443, -0.10188761073174112, -0.08589830093316334, -0.06829928600184937, -0.04942036553055395, -0.02961532410934392, -0.009255301521934227, 0.0112781622884453, 0.031600277148655626, 0.051330213493464866, 0.07009823898291077, 0.08755264716141134, 0.10336634831789546, 0.11724299903645555, 0.12892255557182322, 0.13818614698128104, 0.14486017669216833, 0.148819575642991, 0.14999014603537056, 0.14834995177571297, 0.14392972955018996, 0.13681231282962622, 0.12713107959824796, 0.11506745289532916, 0.10084750100874217, 0.08473770103163587, 0.06703994517175814, 0.048085883393498424, 0.028230708409624366, 0.00784649948987409, -0.012684750178827553, -0.03297829191560837, -0.052653831605914116, -0.07134265628470622, -0.08869454369283124, -0.10438432532381015, -0.11811797997176864, -0.12963814358948084, -0.1387289322036438, -0.14521998750758708, -0.14898966931837207, -0.14996733507271534, -0.1481346636447534, -0.14352599867774998, -0.1362277049958267, -0.1263765501563436, -0.11415714147209072, -0.09979846653262868, -0.08356960205424002, -0.06577467147319235, -0.04674714577531209, -0.026843594362396573, -0.006437003062116886, 0.01409021550035551, 0.03435338818571645, 0.05397278998517297, 0.07258075993879094, 0.08982859097764377, 0.10539306457645083, 0.11898250775951641, 0.13034225895373414, 0.13925944026041118, 0.145566946715154, 0.14914657777843313, 0.14993125237375154, 0.14790626596435022, 0.1431095661112579, 0.13563104134882098, 0.1256108367039446, 0.11323672742564647, 0.0987406001403433, 0.08239410737483165, 0.06450357687972916, 0.04540427115094731, 0.025454104723806676, 0.005026936975592212, -0.015494433872842456, -0.03572544426637869, -0.055286971906704056, -0.07381244037606968, -0.09095468865548542, -0.10639247680490303, -0.11983650589113935, -0.13103483935212423, -0.13977762420293932, -0.14590102360984192, -0.14929028713716566, -0.14988190113170827, -0.14766477894713043, -0.142680468703961, -0.13502237469185913, -0.12483400700478861, -0.11230629221035231, -0.0976739954504329, -0.08121132102176602, 0.5], "sample_rate": 48000}