{"version": "0.7.0", "architecture": "WaveNet", "config": {"layers": [{"input_size": 1, "condition_size": 1, "channels": 2, "bottleneck": 2, "dilations": [1, 2], "kernel_sizes": [3, 3], "activation": [{"type": "Tanh"}, {"type": "Tanh"}], "gating_mode": ["none", "none"], "layer1x1": {"active": true, "groups": 1}, "head1x1": {"active": true, "out_channels": 3, "groups": 1}, "head": {"out_channels": 1, "kernel_size": 1, "bias": false}}], "head": null, "head_scale": 0.5}, "weights": [0.0, 0.020485776475203544, 0.04058765642181475, 0.0599289374024608, 0.0781471703473695, 0.09490095172745795, 0.10987632134110066, 0.12279264582221436, 0.13340787761470702, 0.1415230908618861, 0.14698620920979213, 0.1496948556666821, 0.14959827111325963, 0.14669826551141799, 0.14104918398616595, 0.1327568884163492, 0.12197677361881384, 0.10891085530204968, 0.09380398436007807, 0.07693925844943823, 0.058632716834767826, 0.03922741791977982, 0.01908701044870304, -0.0014110811483004288, -0.02188272956141725, -0.04194430301716444, -0.06121985440818759, -0.07934816641501269, -0.09598952059655051, -0.11083206359888492, -0.12359765118174386, -0.1340470605475715, -0.14198447329591646, -0.14726114499408494, -0.14977819259754596, -0.1494884474847714, -0.14639733938126395, -0.14056279460833618, -0.13209415056342363, -0.12115010677420396, -0.10793575092307613, -0.09269871557329556, -0.0757245376184188, -0.05733130741740635, -0.0378637078887853, -0.017686555269231453, 0.00282203741942743, 0.023277746080469043, 0.04329723764597806, 0.06250535360900271, 0.08054214036720177, 0.09706959463171715, 0.11177799749458879, 0.12439171845642942, 0.1346743806488423, 0.14243329045705863, 0.14752304853316298, 0.14984827453074, 0.14936539450033548, 0.14608345745054435, 0.1400639657726476, 0.1314197227065826, 0.12031271844634513, 0.1069510944984933, 0.09158524318065035, 0.07450311535408466, 0.05602482432187396, 0.5], "sample_rate": 48000}