{"version": "0.7.0", "architecture": "WaveNet", "config": {"layers": [{"input_size": 1, "condition_size": 1, "channels": 3, "bottleneck": 3, "dilations": [1, 4], "kernel_sizes": [3, 3], "activation": [{"type": "Tanh"}, {"type": "Tanh"}], "head": {"out_channels": 1, "kernel_size": 1, "bias": false}, "layer1x1": {"active": true, "groups": 1}, "gating_mode": ["none", "none"]}], "head": null, "head_scale": 0.8, "condition_dsp": {"version": "0.7.0", "architecture": "WaveNet", "config": {"layers": [{"input_size": 1, "condition_size": 1, "channels": 2, "bottleneck": 2, "dilations": [1, 2], "kernel_sizes": [3, 3], "activation": [{"type": "Tanh"}, {"type": "Tanh"}], "head": {"out_channels": 1, "kernel_size": 1, "bias": false}, "layer1x1": {"active": true, "groups": 1}, "gating_mode": ["none", "none"]}], "head": null, "head_scale": 0.5}, "weights": [0.07895037396899506, 0.08624042272433385, 0.09207505977361358, 0.0963558185417193, 0.09901045603371779, 0.09999417202299664, 0.09929036510941186, 0.09691091288804564, 0.09289597150038692, 0.08731329795075166, 0.08025710662467472, 0.07184647930691263, 0.06222335553193047, 0.05155013718214642, 0.040006947759241955, 0.027788592581658635, 0.015101271208634385, 0.002159097572609596, -0.010819513453010838, -0.0236155320696897, -0.036013009947196854, -0.04780272461353429, -0.058785710337848275, -0.06877661591839741, -0.07760683270883323, -0.08512734009355745, -0.09121122039130804, -0.09575580074492712, -0.09868438585032366, -0.0999475522827284, -0.09952398257691626, -0.09742082498528092, -0.0936735728424079, -0.08834546557201532, -0.08152642144499635, -0.07333152009956566, -0.06389906043282238, -0.05338822663916435, -0.041976401783985894, -0.02985617424935936, -0.017232087571561024, -0.004317188520872868, 0.008670568321000133, 0.021511998808781553, 0.03399038823185127, 0.04589514863776903, 0.05702537275932467, 0.06719322456828622, 0.5], "sample_rate": 48000}}, "weights": [0.040006947759241955, 0.027788592581658635, 0.015101271208634385, 0.002159097572609596, -0.010819513453010838, -0.0236155320696897, -0.036013009947196854, -0.04780272461353429, -0.058785710337848275, -0.06877661591839741, -0.07760683270883323, -0.08512734009355745, -0.09121122039130804, -0.09575580074492712, -0.09868438585032366, -0.0999475522827284, -0.09952398257691626, -0.09742082498528092, -0.0936735728424079, -0.08834546557201532, -0.08152642144499635, -0.07333152009956566, -0.06389906043282238, -0.05338822663916435, -0.041976401783985894, -0.02985617424935936, -0.017232087571561024, -0.004317188520872868, 0.008670568321000133, 0.021511998808781553, 0.03399038823185127, 0.04589514863776903, 0.05702537275932467, 0.06719322456828622, 0.07622710923614112, 0.083974569004898, 0.09030485609661848, 0.0951111392407109, 0.09831230658116188, 0.09985433453746051, 0.0997111995180267, 0.09788531709987475, 0.09440750126282198, 0.0893364443662152, 0.08275772664419831, 0.07478237193548898, 0.06554497402147573, 0.05520142519295329, 0.04392628537868406, 0.031909836234935214, 0.01935486991179802, 0.00647326668975659, -0.006517580756966391, -0.019398436125389898, -0.03195191936222737, -0.04396617521587501, -0.055238448550670886, -0.06557850608566536, -0.07481184681190717, -0.08278264690856538, -0.08935638945885227, -0.09442213458610589, -0.09789439169873128, -0.0997145622475965, -0.09985192864760455, -0.09830417267418882, -0.09509741458616379, -0.09028577231468492, -0.0839504481575386, -0.07619835839190321, -0.06716032893252885, -0.05698888748578939, -0.04585568945968794, -0.03394862107070128, -0.02146862853605287, -0.008626326862634386, 0.0043615545366198745, 0.017275829414376467, 0.02989855372260583, 0.042016703682664094, 0.05342577081986536, 0.0639332132919717, 0.07336170526625259, 0.0815521295079313, 0.08836626267646353, 0.09368910801201381, 0.0974308360452199, 0.09952830057841276, 0.09994610435427127, 0.09867719642746134, 0.09574299115788812, 0.09119300681740611, 0.08510402990893742, 0.07757881930112588, 0.06874437204782592, 0.05874978015882668, 0.8], "sample_rate": 48000}