{"version": "0.7.0", "architecture": "WaveNet", "config": {"layers": [{"input_size": 1, "condition_size": 1, "head_size": 1, "channels": 3, "kernel_size": 2, "dilations": [1, 5, 29], "activation": "LeakyReLU", "gated": false, "head_bias": false}], "head": null, "head_scale": 0.02}, "weights": [-0.8408235311508179, 0.014071822166442871, -0.7569854259490967, 0.021151646971702576, 0.0466710589826107, -0.3971571922302246, -0.3111603856086731, -0.15765151381492615, -0.1153918206691742, -0.025089293718338013, -0.29484930634498596, 0.00421991478651762, 0.16221685707569122, 0.3308837413787842, -0.03353160619735718, -0.028269194066524506, 0.33138152956962585, -0.4079907536506653, 0.3452181816101074, 0.389108806848526, 0.1928250938653946, 0.0734340101480484, 0.39832043647766113, -0.017631174996495247, 0.9867712259292603, -0.529161810874939, -0.9063400030136108, 0.12666764855384827, 0.26839011907577515, 0.5640707015991211, 0.10640445351600647, 0.5422080159187317, 0.5698226094245911, 0.45714327692985535, 0.521578311920166, -0.10341515392065048, -0.3208549916744232, -0.5212346315383911, -0.19028018414974213, -0.36781638860702515, 0.31071737408638, -0.37914592027664185, 0.35580164194107056, 0.3960404694080353, -0.03777327388525009, -0.19881916046142578, -0.018669143319129944, 0.1344783753156662, 0.030930014327168465, 0.11552750319242477, -0.02888127975165844, 0.18080921471118927, -0.2846376895904541, -0.2693994343280792, -0.25341343879699707, 0.3545374274253845, -0.2943098247051239, -0.4078470468521118, 0.3975244462490082, 0.33630359172821045, -0.831265926361084, 0.04270827770233154, -0.08490395545959473, 0.05087706074118614, -0.12301314622163773, 0.10110626369714737, 0.21375422179698944, 0.08314734697341919, -0.49200621247291565, -0.2829313576221466, 0.5654761791229248, 0.41206997632980347, 0.2435884326696396, -0.12962184846401215, 0.4800793528556824, -0.39508986473083496, -0.13895127177238464, 0.19437922537326813, -0.40289732813835144, -0.35704898834228516, 0.19305406510829926, 0.05012544244527817, 0.09754441678524017, 0.19723938405513763, 0.06811875104904175, 0.21856321394443512, 0.3223609924316406, -0.31326770782470703, 0.295196533203125, 0.33739596605300903, -0.06215237081050873, 0.19642804563045502, -0.24974998831748962, 0.17452508211135864, 0.18880344927310944, -0.1855870485305786, 0.29122352600097656, -0.5292462110519409, -0.5157462358474731, -0.5611993074417114, 0.5754844546318054, 0.2918010354042053, -0.4801694452762604, -0.10138755291700363, 0.291769802570343, -0.5684884190559387, 0.2062399834394455, -0.03194577619433403, 0.021584507077932358, 0.46240144968032837, -0.11661334335803986, 0.5635383725166321, 0.4503132998943329, 0.4931701719760895, 0.019999999552965164], "sample_rate": 48000.0}