{"version": "0.5.4", "metadata": {"date": {"year": 2026, "month": 5, "day": 31, "hour": 12, "minute": 23, "second": 0}, "loudness": -7.98069953918457, "gain": 0.994556825399964}, "architecture": "LSTM", "config": {"input_size": 1, "hidden_size": 8, "num_layers": 1}, "weights": [0.039103634655475616, 0.14562882483005524, -0.16718196868896484, -0.11700740456581116, 0.010336809791624546, -0.19460228085517883, 0.29133936762809753, -0.300676167011261, -0.25734269618988037, 0.04020088538527489, -0.20706669986248016, 0.269270658493042, 0.26261529326438904, 0.23465055227279663, -0.096195288002491, -0.19194070994853973, -0.2556358575820923, 0.15990577638149261, 0.0737447589635849, 0.14065031707286835, -0.29806068539619446, 0.09116936475038528, 0.19345107674598694, 0.2160836011171341, 0.014917033724486828, -0.17233626544475555, 0.03256535157561302, 0.3151898980140686, -0.017934663221240044, -0.019381312653422356, 0.20461738109588623, -0.34506580233573914, 0.12631452083587646, -0.14877769351005554, 0.08724730461835861, -0.19727987051010132, -0.33505067229270935, -0.30014240741729736, -0.17779065668582916, 0.22496432065963745, -0.03328024595975876, 0.17147967219352722, 0.06614488363265991, 0.31279510259628296, 0.22728994488716125, 0.09669701009988785, 0.1870315670967102, -0.26524364948272705, 0.2607475817203522, -0.18778355419635773, 0.2907005846500397, -0.19855308532714844, 0.24064336717128754, 0.020277101546525955, 0.1531059294939041, 0.24480976164340973, 0.05421732738614082, 0.0059783197939395905, -0.08099991828203201, -0.00817513931542635, 0.2773306965827942, -0.2383137047290802, -0.2996046543121338, -0.19254598021507263, 0.0897139459848404, 0.12458030879497528, -0.035899966955184937, 0.2074861079454422, 0.2914256751537323, -0.24740204215049744, -0.17338311672210693, -0.2729630768299103, -0.2386111319065094, -0.28677546977996826, 0.09389757364988327, 0.17628593742847443, 0.2177933305501938, 0.06314613670110703, 0.29627105593681335, 0.25721457600593567, 0.2215387523174286, -0.17270459234714508, -0.2335599958896637, -0.2669192850589752, -0.2552105486392975, -0.10982326418161392, 0.24927188456058502, 0.28107598423957825, -0.3090672492980957, 0.040826428681612015, 0.1922520399093628, -0.15185175836086273, -0.1575162559747696, 0.19976530969142914, 0.15289658308029175, -0.1781759262084961, 0.030083365738391876, 0.032263580709695816, 0.27534982562065125, 0.11161960661411285, -0.10911443829536438, -0.34891045093536377, -0.29415157437324524, -0.23594361543655396, -0.2878234386444092, 0.22435563802719116, 0.2584056854248047, 0.15123136341571808, -0.2827892601490021, -0.3187743127346039, 0.08579062670469284, 0.27665549516677856, -0.2076287716627121, 0.05452537536621094, 0.10398457944393158, 0.13341474533081055, -0.25241556763648987, 0.14862866699695587, -0.22058163583278656, 0.33674147725105286, -0.2556682229042053, -0.23056630790233612, 0.31538984179496765, 0.18572105467319489, -0.14487957954406738, 0.27939996123313904, -0.3153730630874634, 0.21322356164455414, 0.1163221001625061, 0.09438247233629227, 0.12737633287906647, 0.19502855837345123, -0.2822856307029724, -0.18370546400547028, 0.0830659568309784, 0.23083344101905823, -0.3244788944721222, 0.2328644096851349, 0.0757884606719017, 0.21534691751003265, -0.07619361579418182, -0.16700975596904755, -0.24148407578468323, -0.147817000746727, -0.1341201663017273, -0.09455957263708115, 0.34114429354667664, 0.06938298046588898, 0.07597652077674866, 0.22508275508880615, 0.3017081618309021, 0.17957967519760132, 0.16237102448940277, 0.009196484461426735, 0.16273917257785797, 0.060049183666706085, 0.16454297304153442, -0.24629555642604828, 0.26907774806022644, -0.09249083697795868, -0.16910988092422485, 0.16216236352920532, -0.34879863262176514, 0.2873115539550781, -0.3325873911380768, 0.2521122097969055, 0.0116874473169446, 0.008878654800355434, -0.32773667573928833, 0.10460089147090912, -0.10261674225330353, 0.2299259752035141, -0.11039262264966965, 0.3448578715324402, 0.09935339540243149, -0.11824563890695572, 0.24667488038539886, 0.039832353591918945, 0.14469867944717407, -0.33935436606407166, -0.14798609912395477, 0.15376675128936768, 0.012605616822838783, -0.08547637611627579, 0.27675583958625793, 0.19184815883636475, -0.024042373523116112, -0.25109779834747314, 0.035456668585538864, 0.020313937216997147, -0.2064093053340912, 0.21965837478637695, 0.1253632754087448, -0.24213355779647827, -0.3250070810317993, -0.20650821924209595, 0.22162456810474396, -0.2856239676475525, 0.33500707149505615, 0.06630154699087143, -0.061804939061403275, -0.13203810155391693, -0.11705254018306732, -0.2624773383140564, 0.13590706884860992, -0.3330889046192169, -0.0236777625977993, 0.18217772245407104, -0.2340897023677826, 0.052397046238183975, 0.20767150819301605, 0.3236333727836609, -0.15647092461585999, -0.12942714989185333, -0.20932835340499878, -0.207418754696846, 0.2049839347600937, 0.088652603328228, 0.061475180089473724, -0.1391441971063614, 0.1449361890554428, -0.059725917875766754, -0.10757818818092346, 0.3464677929878235, -0.2866729199886322, 0.11885238438844681, -0.10971439629793167, 0.0572986826300621, 0.10715419054031372, -0.09844319522380829, -0.01555855106562376, 0.19173069298267365, -0.22251984477043152, 0.09261247515678406, -0.1421200931072235, 0.03206511214375496, -0.23816417157649994, 0.18286311626434326, 0.3009844124317169, -0.26701802015304565, -0.09031993895769119, 0.2717600166797638, -0.09031188488006592, -0.13229423761367798, -0.03117956407368183, -0.1724511981010437, -0.07043218612670898, -0.3060125410556793, -0.2795379161834717, -0.262152761220932, -0.2675391733646393, -0.006233392283320427, 0.014446253888309002, -0.32900625467300415, -0.13002559542655945, 0.006807221565395594, 0.2055869698524475, -0.2358240932226181, 0.32971659302711487, 0.3058526813983917, -0.06683900207281113, -0.15476040542125702, -0.018279720097780228, 0.01809435896575451, 0.25669968128204346, 0.07205598056316376, -0.32620668411254883, 0.1382811963558197, -0.30250832438468933, 0.04134702682495117, -0.09912588447332382, 0.05426204204559326, -0.16399788856506348, -0.0642164945602417, -0.06530283391475677, 0.14512795209884644, -0.16829371452331543, -0.24011674523353577, -0.14934617280960083, 0.04258193075656891, -0.26935330033302307, -0.26720067858695984, 0.12575995922088623, 0.30348026752471924, -0.06577344238758087, 0.016781020909547806, 0.21071332693099976, 0.15653039515018463, -3.863790512084961, -3.985088348388672, -4.321252346038818, -3.8441150188446045, -4.35244607925415, -3.8678722381591797, -3.7606992721557617, -3.708552360534668, 3.817516326904297, 4.405419826507568, 4.340976715087891, 4.302244186401367, 4.192660808563232, 4.366347789764404, 3.7056639194488525, 4.433934211730957, -0.0701027661561966, 0.1491152048110962, 0.3388078510761261, -0.12469957768917084, 0.4551096558570862, -0.39370161294937134, 0.3194730877876282, 0.43973660469055176, -0.1282537430524826, 0.012372247874736786, -0.17850546538829803, 0.028391718864440918, 0.22048959136009216, 0.0754631757736206, -0.35507041215896606, -0.03050045669078827, 0.007545296102762222, 0.2277001291513443, 0.15685632824897766, -0.06421732902526855, 0.1930568665266037, -0.32695773243904114, 0.0634724423289299, 0.32878804206848145, 0.016701526939868927, 0.49196553230285645, 0.37665697932243347, -0.1284848302602768, 0.40265747904777527, -0.7813739776611328, 0.15750102698802948, 0.8166081309318542, 0.16833080351352692, -0.24770836532115936, -0.29572153091430664, -0.01133404579013586, -0.2512877285480499, 0.2907421588897705, -0.21995626389980316, 0.10606271028518677, -0.17362789809703827], "sample_rate": 48000.0}